{
  "nIn": 4,
  "nHidden": 16,
  "nOut": 2,
  "W1": [
    [
      1.4979792837140624,
      -0.5179052449579952,
      0.5816023320425576,
      0.44224639177900515,
      0.48014023343255097,
      1.156770416176474,
      -0.696844902046959,
      0.08207925203647293,
      -0.04613504791246647,
      0.15978933878685467,
      1.1501763783606604,
      -0.5431563736397944,
      -0.8209924358702683,
      -0.37616381162579343,
      1.0085593176240213,
      0.8758750691612543
    ],
    [
      0.8423014501129047,
      -1.7139964015725262,
      0.6281413018265567,
      -0.7679665625225476,
      -0.32799109858747516,
      -0.11731105575517181,
      0.8623994919881603,
      -0.4194388295576538,
      0.08614861368251202,
      -0.4138403147423065,
      1.0320284194486957,
      -0.4100406295988263,
      -0.38038943361125754,
      -0.1708906512062842,
      0.10588114835068675,
      0.15769826315540253
    ],
    [
      -1.8022972885282806,
      0.6672414629201634,
      -0.23353035377322887,
      -0.026109845395224946,
      1.9303165591893499,
      -0.4141580066916884,
      0.5220398671479866,
      0.13820021932567758,
      0.35307161840237683,
      1.312865006139087,
      -0.013514455373755063,
      0.2795172061637263,
      -0.6689829520569659,
      0.08823249677179161,
      0.3543073579189637,
      -1.1194562728668056
    ],
    [
      0.07286124210152913,
      0.2624463503672113,
      -1.1643563229399527,
      -0.3794201936082351,
      0.2932345053645472,
      0.2598027048696073,
      0.19790664112305179,
      0.20440195599993272,
      0.7975936980381104,
      0.19807820993058328,
      -0.39043418989597295,
      -0.8885846380513117,
      -0.014573284864483955,
      -0.497998014963357,
      0.012626971315953273,
      0.678716455264283
    ]
  ],
  "b1": [
    [
      0.1440826874096114,
      -0.3727995084140074,
      0.641283126657975,
      1.2141597699382711,
      0.4273850471322136,
      0.9965566584733733,
      0.329888487582068,
      1.008290260375312,
      -0.6004272660974729,
      0.4767399350137366,
      -0.5094848522728479,
      0.3314332500240332,
      0.36917603407943883,
      -1.307714342884645,
      -0.2065482180213558,
      -0.4771530474910153
    ]
  ],
  "W2": [
    [
      -0.28885357374517273,
      2.3554441646477873
    ],
    [
      0.08360626293846436,
      0.08732072755697136
    ],
    [
      -0.2163039525624292,
      0.15443737085375228
    ],
    [
      0.9931412743460277,
      -0.12212277793073963
    ],
    [
      -0.4647675051051777,
      0.41375234193924193
    ],
    [
      -0.44163142404461364,
      -0.2845707501074884
    ],
    [
      -0.23296279028413025,
      0.9506008158226888
    ],
    [
      -0.26465236679541043,
      -0.5495440823490386
    ],
    [
      -0.505652659285605,
      0.646420324547489
    ],
    [
      -0.2986016112594888,
      0.12154876577335431
    ],
    [
      -0.23204234990637082,
      -0.3462949640762698
    ],
    [
      0.21687836821747686,
      -0.340343307157415
    ],
    [
      0.22870049586773986,
      -0.2518634885888544
    ],
    [
      0.24471681149990887,
      -0.08290549821125329
    ],
    [
      -0.20907421852198,
      0.012271663897936602
    ],
    [
      0.2821493367229255,
      0.04659660182215449
    ]
  ],
  "b2": [
    [
      -0.09437453535002405,
      -0.594602873314008
    ]
  ]
}
