{
  "nIn": 8,
  "nHidden": 16,
  "nOut": 2,
  "W1": [
    [
      -0.10524960756318191,
      0.7912801970726504,
      3.6100054820601852,
      1.8426939963543472,
      -0.017222718351776314,
      0.42471145680672284,
      1.1734054046331264,
      -0.1366223738250477,
      -0.33291965030104465,
      0.03156349730163721,
      0.10737455185286665,
      0.16549381284151612,
      -0.10243920079180183,
      -1.9798135088214552,
      -1.718669866755623,
      -0.36210113031023317
    ],
    [
      0.5703731579322339,
      1.1835403961807784,
      -0.6719357068707428,
      0.9152726845626913,
      -0.5044310544218641,
      0.5616660257212018,
      -0.1617001462381543,
      0.7309392849273939,
      -1.1899176271857717,
      -0.38504854742092764,
      0.2140300241307268,
      0.58734617718992,
      -1.2464816555883855,
      -0.7179611808625372,
      0.3310600964622128,
      -1.808557977380222
    ],
    [
      0.6583434036895387,
      0.8870596045527234,
      -0.5354943377368006,
      0.12879854558952095,
      -1.3297943869212205,
      1.2813529349689357,
      -0.11354561584215725,
      -0.3261944665834393,
      0.21782502944263418,
      0.11049980015619547,
      0.09061169700385827,
      -1.980498746677331,
      0.21780089844172454,
      0.3850530159936414,
      0.1748271598277064,
      -0.006878557194238008
    ],
    [
      -0.6050963641692492,
      -0.9624972665045787,
      0.9223516044777365,
      -0.10878915370842777,
      0.4510680303785558,
      0.6162417094279106,
      0.0421372618177754,
      -0.4167769140021985,
      0.19694563746626403,
      -1.0516363933909991,
      -1.4396201666593895,
      0.04421499106773141,
      -0.5980892139823143,
      -0.052617509152912766,
      -0.26639017995042164,
      0.15656514231008498
    ],
    [
      0.12133460689085679,
      0.8555025150310039,
      -1.0448718197265667,
      0.11233348986096946,
      -1.705274743997385,
      -0.7696335539967301,
      -0.49744651751695035,
      -1.311133736287836,
      -1.2798907169221176,
      -1.4172805222696874,
      -0.8798716071958992,
      0.9153355847898041,
      0.04676204543135399,
      -0.3543233624397003,
      -1.5557981672487498,
      -0.5355011711698282
    ],
    [
      3.9621356895174378,
      0.06057025362211677,
      -0.28422128264058577,
      0.12327932853918921,
      -0.038791906326128445,
      -0.2304226472556571,
      -0.2589256277870649,
      -0.310671257879661,
      0.9572050806476913,
      -0.06658690535693182,
      -0.7979949225213003,
      0.6938315196826462,
      0.5178268016301624,
      -0.3225708296077926,
      -0.0465049546694837,
      1.7796152443822153
    ],
    [
      -0.28433819472537436,
      -0.4325579289076789,
      -2.1402781782624927,
      0.3438281338768699,
      -0.2584192051329187,
      0.32738417049788576,
      -0.0034490286681241322,
      -0.7820063458222005,
      0.8124250301717754,
      -0.9276746758507692,
      0.31719359957181303,
      -1.0736957138373473,
      -0.09128915801919549,
      0.5664005902760667,
      1.5784879012924222,
      -0.73899700615166
    ],
    [
      -1.1858169708439665,
      1.5167537542030116,
      1.9134926671638979,
      0.019516304446079633,
      -1.2264098124443592,
      -0.2472043327962729,
      -0.5200107600646328,
      0.617143092791906,
      2.6816317002844414,
      1.3598586401424697,
      0.036012408686945094,
      3.3491494485193867,
      0.5854560428495534,
      0.37745832903419085,
      -0.3430984983490954,
      -0.27990795391682527
    ]
  ],
  "b1": [
    [
      1.2648711958417806,
      0.38564044201451747,
      0.1945208159102253,
      0.8792277754391202,
      -1.64284820387187,
      -1.7685899793423414,
      -1.6273365211113804,
      0.19119333434012709,
      -1.4382672730363772,
      -0.981958533628501,
      0.33343889003082233,
      0.7794249342569278,
      -0.17615066725475267,
      -0.144156873965897,
      1.5242601656013013,
      -0.9476381507185548
    ]
  ],
  "W2": [
    [
      0.14167191287741004,
      0.09211135245758316
    ],
    [
      -1.1247570436259537,
      -0.5393788503681078
    ],
    [
      0.637701407888641,
      1.0500186676276109
    ],
    [
      -1.280537529907519,
      -0.21179251776037278
    ],
    [
      -0.4225528941328468,
      -0.037411506385624155
    ],
    [
      -0.1010800220359672,
      0.4068193285931845
    ],
    [
      0.12967144199032482,
      -0.20443448975773207
    ],
    [
      0.14586898935335346,
      4.540695187626217
    ],
    [
      -0.9179734435014563,
      -0.36921225734301116
    ],
    [
      0.2928636162608761,
      0.014997106818003827
    ],
    [
      1.3247405614009382,
      0.40293939630283837
    ],
    [
      -0.649593292921403,
      0.2315278300411862
    ],
    [
      -0.497662187499667,
      0.7332143369557037
    ],
    [
      4.901156019123424,
      -0.010923772869696957
    ],
    [
      0.1858887920710354,
      -0.49403988735679166
    ],
    [
      -0.3360876719439949,
      0.08967409985288344
    ]
  ],
  "b2": [
    [
      0.03017988629682522,
      -0.8374493427522733
    ]
  ]
}
