{
  "nIn": 8,
  "nHidden": 16,
  "nOut": 2,
  "W1": [
    [
      0.017839942752872817,
      0.49273970703065645,
      1.4770112281578935,
      2.869536944245101,
      -0.3731881888001561,
      0.42471145680672284,
      1.1734054046331264,
      -0.1366223738250477,
      -0.18407686553957173,
      0.03156349730163721,
      -0.35220775008352206,
      -1.1182597795811657,
      -0.15680236701145445,
      -5.496523122894057,
      -1.718669866755623,
      0.010270108738279549
    ],
    [
      0.22664996109718322,
      2.068802521277907,
      -0.7834466156216929,
      2.4597142124313693,
      0.43638590054810933,
      -2.0924004377093555,
      0.24235492234929978,
      0.7309392849273939,
      -0.26343645438926877,
      -0.38504854742092764,
      0.2140300241307268,
      0.58734617718992,
      -0.34788779761367233,
      -1.59325261248842,
      0.27991555797135537,
      -0.07612317153715487
    ],
    [
      0.25939064341361817,
      2.6619004978631238,
      0.36999320823182447,
      -1.7388169188545588,
      -1.1011172231268833,
      -0.7102424205606079,
      -0.11354561584215725,
      -0.3261944665834393,
      0.31893373493613897,
      -0.6649783425160029,
      0.09061169700385827,
      -1.684462125062314,
      0.12325936201994075,
      0.3850530159936414,
      0.1748271598277064,
      -0.32001966262282616
    ],
    [
      -3.373686232926569,
      -0.7972975623254388,
      0.9223516044777365,
      -0.10878915370842777,
      1.2110833112634538,
      0.7202191573696426,
      0.0421372618177754,
      -0.8984412967195241,
      1.3535203033630805,
      -1.0516363933909991,
      -1.1202582626398787,
      0.04421499106773141,
      -0.5980892139823143,
      -0.974783008817685,
      -2.3678249620560363,
      0.15656514231008498
    ],
    [
      0.9550190442497488,
      0.7702866676555364,
      -1.0092337497736577,
      1.1404508818150783,
      -1.705274743997385,
      0.6713293783131428,
      -0.49744651751695035,
      -1.311133736287836,
      -1.2798907169221176,
      -2.390472162650723,
      -0.8798716071958992,
      1.6023274062060486,
      2.063342512708872,
      -1.3456606706037266,
      -1.5557981672487498,
      -2.8918194159504336
    ],
    [
      4.241918689151838,
      0.06057025362211677,
      -0.28422128264058577,
      -1.115997869092156,
      -0.038791906326128445,
      -0.7735796948550773,
      1.5132097446802557,
      -0.27499291824810745,
      2.2303082177134628,
      -0.06658690535693182,
      -0.7979949225213003,
      1.332170666156192,
      3.4474706691383323,
      -2.7618569305673955,
      0.7479436301151831,
      1.7796152443822153
    ],
    [
      -3.6435997147033654,
      -0.4325579289076789,
      -2.2505549571653383,
      -1.2305600319739776,
      -0.2584192051329187,
      0.32738417049788576,
      -0.0034490286681241322,
      -0.7820063458222005,
      2.149263022257301,
      0.7579854901864367,
      -0.846172863309597,
      -1.0736957138373473,
      -0.09128915801919549,
      0.5664005902760667,
      1.8074073583947938,
      -1.2557771774713622
    ],
    [
      -0.9643155770672588,
      1.5167537542030116,
      1.9134926671638979,
      0.16280675172560669,
      -1.2264098124443592,
      -0.5896747591717781,
      -1.3694233617651363,
      0.48396239055645823,
      0.5517549606659176,
      4.075511304814765,
      -1.1302219657672732,
      2.403008940879718,
      0.6719737137966618,
      -0.8582536970052896,
      0.22062543692727432,
      -1.7416850563078523
    ]
  ],
  "b1": [
    [
      0.61577654428239,
      0.2745035975642236,
      -0.6327424776978069,
      0.7366978628850136,
      -2.992531955523344,
      -2.032818722116644,
      -0.5200834611886289,
      0.22962745927954117,
      -1.4382672730363772,
      -0.981958533628501,
      -0.0727807779071884,
      0.7794249342569278,
      0.0655015200185933,
      -0.25253290472588913,
      2.2429471204137146,
      -0.254822683475981
    ]
  ],
  "W2": [
    [
      0.14167191287741004,
      0.09211135245758316
    ],
    [
      -1.1247570436259537,
      0.9573207384103639
    ],
    [
      -1.5434493647652592,
      1.0500186676276109
    ],
    [
      -0.4158385047951668,
      -0.21179251776037278
    ],
    [
      -0.35907890577922286,
      0.2678243551724261
    ],
    [
      -0.9661493182038358,
      0.5284118468090846
    ],
    [
      1.5193688743120555,
      0.7164241674517144
    ],
    [
      1.7091249932912187,
      4.540695187626217
    ],
    [
      -0.9179734435014563,
      -0.30214260971664064
    ],
    [
      0.36086232042717525,
      0.014997106818003827
    ],
    [
      -0.6223344724634703,
      -0.1252648914302713
    ],
    [
      -0.7315336083792823,
      0.2315278300411862
    ],
    [
      0.7576654435757701,
      0.7332143369557037
    ],
    [
      4.901156019123424,
      -0.010923772869696957
    ],
    [
      0.1858887920710354,
      -0.49403988735679166
    ],
    [
      -0.9289581372832714,
      1.3253339795940136
    ]
  ],
  "b2": [
    [
      0.03017988629682522,
      -0.18008458207570388
    ]
  ]
}
