{
  "nIn": 3,
  "nHidden": 16,
  "nOut": 2,
  "W1": [
    [
      2.1066902990050034,
      1.3055949913998566,
      1.5642773530141931,
      0.16971820142858368,
      -0.47315817496255275,
      -0.02598949848806634,
      -0.5551946865402564,
      1.796820301383449,
      0.47298061338351666,
      1.0611855845874074,
      0.7208377089724558,
      -3.0070146477716198,
      -0.32964101678085966,
      0.9072268397957068,
      -1.136197583628225,
      -1.8146270408388006
    ],
    [
      0.600828207333754,
      -0.3370565356774298,
      0.8235767482227601,
      -0.8622880042944826,
      0.44596521335751776,
      -1.436831597874865,
      0.7423820897027797,
      0.2556325917846222,
      1.5647251707790923,
      -0.6606181052401983,
      0.6681320796518584,
      -0.3266330567525413,
      1.0129404293398987,
      0.41476959616249215,
      -0.4842549237443291,
      -0.22076647658389512
    ],
    [
      -0.6072083738253159,
      1.271957235473998,
      0.10916862637708125,
      -0.3475013544618599,
      -0.3041995263604002,
      0.6604259051633447,
      -0.27694565777895597,
      -0.16531017431839098,
      1.7349272825406914,
      0.7795652211143428,
      -1.9874345533404543,
      0.47605988206579547,
      -0.739558268038629,
      3.3459577220640275,
      1.1507447591292506,
      -0.03157935288621636
    ]
  ],
  "b1": [
    [
      -0.22160122716625597,
      0.44256819179662715,
      0.37595107804188027,
      -0.5496115931341626,
      0.6711469561543367,
      0.8322486376986337,
      0.838738051038411,
      0.6687643959698173,
      -1.175799511075152,
      -0.26254161606958826,
      0.004004526032102995,
      0.5777594298956737,
      -0.8804101621058082,
      -0.5350067010659602,
      -0.593535807060456,
      0.4201609146778541
    ]
  ],
  "W2": [
    [
      -0.13579486841124608,
      0.038540893288664724
    ],
    [
      -2.977024000402384,
      0.9228352731115254
    ],
    [
      -0.12363908189960496,
      0.454764042670968
    ],
    [
      -0.1799227760437539,
      2.708421844078305
    ],
    [
      -0.03725329801047784,
      0.5539546924999679
    ],
    [
      0.1354760138303229,
      -0.8327337753167336
    ],
    [
      0.019331840005166523,
      -0.07313086099943741
    ],
    [
      0.2740130157861261,
      1.0035484388189122
    ],
    [
      -0.022338309214760932,
      0.35807780768368647
    ],
    [
      1.4248413437798217,
      -0.0839740685264257
    ],
    [
      -0.1726426794343628,
      0.09523825286713511
    ],
    [
      0.11472904893863582,
      -0.9933334877581977
    ],
    [
      -0.3129611550337831,
      -0.8579917548112121
    ],
    [
      -0.27724246587915785,
      0.2726599290472955
    ],
    [
      0.2552040405187219,
      -0.02324123678334896
    ],
    [
      1.3653667134905954,
      -1.869024900780833
    ]
  ],
  "b2": [
    [
      -0.2789520391210851,
      0.3776420229766983
    ]
  ]
}
