{
  "nIn": 3,
  "nHidden": 16,
  "nOut": 2,
  "W1": [
    [
      1.1386320194640467,
      1.3055949913998566,
      1.0759446832791328,
      -0.7852654229976,
      0.22901968310618662,
      -0.30419737956720394,
      -0.5551946865402564,
      1.2576860479670469,
      0.47298061338351666,
      1.0611855845874074,
      1.2932327588834098,
      -0.7189986391163645,
      -1.747924692374168,
      -0.5254963813991405,
      -0.02365571623260878,
      -1.4352385450396956
    ],
    [
      -0.679679994488155,
      -0.3370565356774298,
      0.8235767482227601,
      -0.887263829238715,
      0.44596521335751776,
      -0.5886905525697491,
      0.7427700511628614,
      0.2556325917846222,
      0.4440112015129277,
      -0.6606181052401983,
      0.6681320796518584,
      -0.3266330567525413,
      1.0129404293398987,
      1.4583259351825915,
      1.0833406710066456,
      -0.22076647658389512
    ],
    [
      -0.8274620723575269,
      0.7509794527632982,
      0.10916862637708125,
      -0.3475013544618599,
      -0.3041995263604002,
      -0.5409597077258571,
      -0.5149343458912728,
      -0.16531017431839098,
      1.7349272825406914,
      0.21876617751788283,
      -0.3993366541126807,
      0.47605988206579547,
      -0.8497510980091958,
      1.9178681812483218,
      1.1507447591292506,
      -0.03157935288621636
    ]
  ],
  "b1": [
    [
      -0.22160122716625597,
      0.44256819179662715,
      0.6829457957235799,
      0.5055677179583015,
      -0.4217630255420485,
      -1.1396973377248576,
      0.4813671765417137,
      0.6922181579853917,
      0.3980962889870218,
      -0.09084536645412729,
      -0.06493753940760365,
      0.5777594298956737,
      -1.3106086136333355,
      0.9475713971309359,
      -0.4977550792806894,
      0.48979630800116974
    ]
  ],
  "W2": [
    [
      -0.13579486841124608,
      0.038540893288664724
    ],
    [
      -0.3505869559343945,
      -0.054861466505055294
    ],
    [
      -0.12363908189960496,
      0.21588086807990114
    ],
    [
      -0.1799227760437539,
      0.08558972243785509
    ],
    [
      -0.03725329801047784,
      0.5539546924999679
    ],
    [
      0.1354760138303229,
      -0.6492954816757082
    ],
    [
      0.6235608635355687,
      -0.27718736126302135
    ],
    [
      0.4574050813798823,
      0.5694614385061889
    ],
    [
      -0.8477795707019211,
      0.35807780768368647
    ],
    [
      0.6555957848888418,
      0.3089324272197839
    ],
    [
      -0.1726426794343628,
      0.09523825286713511
    ],
    [
      0.11472904893863582,
      -0.1810682743242782
    ],
    [
      -0.3129611550337831,
      0.6607555292250267
    ],
    [
      -0.27724246587915785,
      -0.19781200037716407
    ],
    [
      -0.7270943277061811,
      -0.02324123678334896
    ],
    [
      0.5733796516513191,
      -3.211009296325144
    ]
  ],
  "b2": [
    [
      0.4768688442979382,
      0.3776420229766983
    ]
  ]
}
