{
  "nIn": 8,
  "nHidden": 16,
  "nOut": 2,
  "W1": [
    [
      0.5857248039083621,
      0.4884632048650602,
      -0.30535526613832326,
      0.08267840259343863,
      -4.282233783800242,
      -0.5283313089805751,
      -0.616147448783711,
      0.4630335970346462,
      3.359832068151116,
      0.05282637382105737,
      1.0058071501119166,
      -0.20664199162465063,
      1.2738474364045418,
      0.1574335976082923,
      -2.92953547801646,
      -1.3737094047094731
    ],
    [
      0.09909105248056935,
      1.3747109373099222,
      -2.913798034399992,
      0.11983336370235362,
      -1.1211834388965607,
      -1.2137473284650548,
      -0.3707194906833839,
      -0.32718260912613056,
      0.21553062858028618,
      3.6977133900538024,
      -0.4135488116225166,
      -0.5133554831105699,
      0.8376568780954605,
      -1.1703791527675014,
      3.7801789028448556,
      0.5207638401169596
    ],
    [
      -2.4200612401751993,
      -0.890108177172224,
      1.1657695944177946,
      0.8419661077475525,
      0.5578254289667351,
      1.229401727365249,
      -0.532068523890064,
      0.03549677750551561,
      -1.9355548594665606,
      -1.9159735107875258,
      -1.106279557431765,
      0.0035015388384910177,
      -0.4407381908413568,
      0.39600654685200126,
      -1.6335786523182232,
      -0.7127795656900885
    ],
    [
      -0.336434171825734,
      0.7625249738029505,
      0.5599230637340782,
      0.7184695880197192,
      0.39594720190744553,
      0.5169479564505175,
      1.134030984504228,
      0.058863222941655025,
      -0.6984661816238181,
      -0.6299104080800819,
      0.14198312706855007,
      1.635056435963498,
      -0.06843085387443712,
      0.21364301325090218,
      0.27930939490286283,
      -2.1664628256779075
    ],
    [
      -1.7632742738206226,
      0.1726572998587054,
      -1.4605819144196617,
      0.28614060383197026,
      -0.5464921107506735,
      -0.5000912143299561,
      0.19547193164679721,
      -0.6983729412511448,
      -1.6491305622961654,
      0.07057319887918496,
      -1.2316781256549008,
      -4.211181665211065,
      -1.839672507226392,
      0.1318995627156237,
      -0.7440932489353904,
      0.7479443463433171
    ],
    [
      -0.8017660927602525,
      -3.001803345269704,
      0.5417140198739839,
      1.5450232159137562,
      -0.5970234371253816,
      0.36601674091280845,
      0.12017091467561351,
      -0.7913122484132596,
      -0.5267820873718901,
      0.7735492693175938,
      -0.6456297736023516,
      -0.9431902100539544,
      -0.21932160467956385,
      -0.604715954202179,
      2.991508701175362,
      0.010794367650968167
    ],
    [
      -1.266015983166997,
      -0.1551490471317758,
      1.5028003598824204,
      -1.894994150063312,
      0.38042866563611455,
      -1.9374294311951508,
      0.5267105566056756,
      -0.48588158464905223,
      0.9717815476068199,
      0.12409437077802557,
      0.28998757305400463,
      1.6725554725936398,
      -0.5872948933535161,
      -0.24100151164307484,
      -0.27571512262453446,
      0.14548945090447585
    ],
    [
      -0.28320744753814886,
      0.46407637683106207,
      -0.09333172708971857,
      -0.8279724430868198,
      0.4806699953974555,
      -0.028150715271059737,
      -0.21678486597365565,
      0.2590595513415131,
      -0.11949789651199705,
      -0.5005102079323925,
      1.0566073072538726,
      0.6254811739099454,
      0.6608730704728231,
      -1.848440668566098,
      1.3068366962057152,
      1.5782340560255566
    ]
  ],
  "b1": [
    [
      0.8123106027586549,
      0.4799593184673122,
      0.2517843646347603,
      0.35194739984014,
      3.0933068197474114,
      -0.7078012079658166,
      -0.905353613148368,
      -1.3507378812091624,
      -1.1468794790170584,
      0.13293525318231403,
      1.3069516546292317,
      -0.19487389040092518,
      0.12776561246165008,
      0.2773743810996056,
      0.1352461503896728,
      0.41409177411834674
    ]
  ],
  "W2": [
    [
      -0.6413695415192724,
      0.019384426833071518
    ],
    [
      -0.4540128579915762,
      1.278391632923297
    ],
    [
      0.8112245059238848,
      0.20335421113086868
    ],
    [
      -0.7607053090435011,
      0.4370016636473484
    ],
    [
      0.09606304706310459,
      -0.5592569469236636
    ],
    [
      0.2834498119105287,
      -0.20033660655433858
    ],
    [
      0.15536606538434675,
      1.043200552512233
    ],
    [
      -1.3263289405271645,
      -1.1027825254854169
    ],
    [
      -0.09959796437933924,
      -0.8114175812953425
    ],
    [
      -0.8880935938488368,
      -0.2300043998047427
    ],
    [
      0.039724248811187135,
      0.5214853477529312
    ],
    [
      0.9321517523430032,
      -2.243294035955326
    ],
    [
      0.39096634454668966,
      0.41997614991307863
    ],
    [
      0.49547579850750867,
      -0.007573711935457521
    ],
    [
      -0.2921258841936139,
      2.53457897563526
    ],
    [
      -1.399825716564144,
      0.14412135627978487
    ]
  ],
  "b2": [
    [
      -0.2791230320706148,
      -0.12650393495137874
    ]
  ]
}
